function [Y,Xf,Af] = fn_365_dias_horasnum_490neur(X,~,~)
%MYNEURALNETWORKFUNCTION neural network simulation function.
%
% Auto-generated by MATLAB, 07-Nov-2022 23:55:54.
%
% [Y] = myNeuralNetworkFunction(X,~,~) takes these arguments:
%
%   X = 1xTS cell, 1 inputs over TS timesteps
%   Each X{1,ts} = 1xQ matrix, input #1 at timestep ts.
%
% and returns:
%   Y = 1xTS cell of 1 outputs over TS timesteps.
%   Each Y{1,ts} = 1xQ matrix, output #1 at timestep ts.
%
% where Q is number of samples (or series) and TS is the number of timesteps.

%#ok<*RPMT0>

% ===== NEURAL NETWORK CONSTANTS =====

% Input 1
x1_step1.xoffset = 1;
x1_step1.gain = 0.000228336568101381;
x1_step1.ymin = -1;

% Layer 1
b1 = [-680.47806971828117639;-682.1880913280014056;678.86169917304414412;-676.61524056233463398;-674.72441422619976947;671.33194776023117356;665.94644584174545798;-660.21991612845010877;-658.97440880418753295;-658.99658763735033062;668.37229156367595806;-641.8012187870345997;-664.42241127077966212;636.72744167701625884;-653.6528134461565287;623.18782189903663493;652.85479442276255213;-624.61559538173264627;-632.25704079162596827;-609.91033792824964621;-638.59259882983508305;624.36187754584034337;-600.98749783309847317;-631.3742511151809822;-617.6727600042343056;-613.18276617691412866;-587.65422406182335635;618.6647614728061626;-618.14720603869750448;589.72114192059893867;-609.2598933372034935;579.64275681271124085;607.4333330488369711;577.71794004331809447;601.59197632565940239;-572.76873050902679552;-591.30701514495444826;561.28404539180473876;-587.71946468873454705;566.16189984819823167;575.74206211509465447;546.74581143829743723;-570.73980958152992571;-578.43485845568488912;541.2751367957059756;560.70810746909319278;558.76326849268377828;-530.76996355943083472;-552.38307983527647593;-545.17048172471481848;540.08076941063450249;-542.57069279933148209;-520.02957599601006677;547.9653113967316358;539.29814105149716852;511.0889613082233609;-510.35863431155047465;537.33741958457676446;-527.0688933834967429;498.90339036503979742;-498.41628437862226519;526.04481136318258905;-514.83755954235061836;-483.79244048860698513;-508.4437771540445965;-509.50286917999704883;-485.60980828112394647;498.69199096738753951;471.83449258095737378;499.58989445768668247;-496.89477248863795467;471.06561152398865033;-493.52956489710754795;469.66281016796125414;-478.3937133570500464;475.61687183683341118;474.73830898639647558;445.78180639136195396;-473.06611255050307818;466.9336724420714404;440.09193228518989827;-433.27951920069642711;-460.13497200119184072;-449.12802687960709136;-451.53998445240347337;429.13913752063456286;-453.55032796898302649;-450.31976231064822969;426.79839028524315836;-439.50806961061715583;415.14660504308648115;442.22519077986424918;-422.78878810789927911;-432.53321342993518783;-414.57830861197686545;397.14469804811608356;-421.31074924257563907;392.86337243807327013;417.30145427014571169;403.1455141145566472;410.97112810633501567;-405.38782412162544233;382.61686272690928945;-404.95096006075459627;387.70321236295831113;-385.05395596335671371;401.40989034609532382;-375.21078393182244781;-393.25741577978641317;-383.00729067242400561;362.3735774448380198;360.7233955576327844;381.47041445008852634;-371.61592640677901045;364.04791200347926861;-370.58045528261681056;-349.89985996552934466;-359.57407331446341914;341.16041579734860534;350.63930006672194395;350.52732776106472556;-345.71036896347754919;325.92912710489156325;-343.28688308008838703;-337.52769361916102753;-331.34036786472393032;332.22683547343768851;330.89607761338606906;310.13437326603934707;-323.1609977735399184;301.23555111973934117;-322.94712178087962684;316.2266886494645064;288.68260558623472889;308.2542427216524743;310.23128903637365283;-291.41153303761325333;-294.73543748090952477;-307.87839193826721385;301.89396842269275112;-288.34318962711313361;-279.45749848581192509;294.07140522097807889;-284.76935464323526048;279.57147593372019401;278.92361291803996437;262.16990502607347935;260.74631801257049801;276.98715983509885064;271.24283194850983136;257.44611311355544103;262.76483783437481634;-259.33917921601022272;-257.2611843558062219;251.74919453261040303;249.77771150761952867;232.37619878842787102;-248.18128416437284045;230.09133504371826007;243.29192553024003587;-235.40282953469906602;233.3519159971973238;234.4384317380037146;228.96974751203239862;210.28566509065586843;224.40136336934119754;-220.38291885747227639;-211.9005432599441292;-221.12463998497796069;209.78561683407832561;204.29206760068575477;204.3924281273308452;-197.31030904843450458;206.70289908481558427;183.6309524104157731;195.98376160198586149;-194.16769520873484112;-183.97592879363563156;-179.61098298978905063;188.31816905308119203;-173.14747176489873937;178.24892080248440607;-176.15864591958350616;162.78801430239377623;-173.25029510150568512;168.40827156620420624;159.94242230630993618;-162.978200294472515;-157.69698283227398861;147.96934084652858132;-155.70788403623660656;-147.09593347685543563;142.30056572696611283;147.91405001332805114;144.34778063542088944;138.29171064040428973;-138.64119934654976873;-131.18136169088597853;-133.40278667919429267;-126.20643223509094355;-124.87465992255947356;117.63999839138382697;-120.87260480252977857;-117.81278145402178836;106.8562716970426294;-115.14156911206342215;-101.19623664010504172;-105.77400663051543006;-101.89462316850642765;-102.23068696226972918;94.930621264322581965;88.151675324867355243;92.269870839425379927;92.019329729577066246;-85.904827285666101488;81.501428333271533688;77.067316212597688718;81.141471252084926391;71.002304264608653739;70.33379243322582397;69.950454234455875735;-68.4610194759779489;62.548031699000297579;58.291137408194195757;-55.495254682958744752;-54.907372191927386496;53.130852703697669881;46.724796903201493592;49.932444291952883475;44.682563972643450256;-41.835955666937763908;38.774797883324659153;-36.893341156706853212;-29.062296670026380951;30.33955178426821675;25.946238764130953314;24.363417891847451102;23.552938405885882389;16.504785321111327789;-12.544578265249283433;13.367866163057955831;8.3277624508737790876;-8.240050973908834564;4.1701663168992748609;-3.9679690569198915462;4.1249746435413472412;-4.3089510851485961496;8.8127046370044030965;-9.3225392574337035967;-13.875192975434647025;14.3516261701833443;19.123149200838490458;17.987582941883058396;-24.591745178813305017;-23.489519091950469942;31.086324234826200552;32.826186911659839041;-36.22447383839678281;-36.812822353240022721;41.662551980717054789;-39.180619486805156271;45.026651450265298138;51.549022268126378776;51.617002986706040701;-53.504088673267318654;-57.16995690463977553;-59.175213472882113308;63.135908582715615012;-66.598629920591818632;66.606189238740768133;-72.377689623202925873;68.674538333466756512;-87.34738710927199179;79.408053559148456202;84.616868017534656587;90.809486485728655225;87.515077971110457611;-90.902420693060264512;94.19887042041906966;-99.143004650393564248;-94.1224011053869134;104.21677289627201901;99.258923869113175442;-106.29601814967060136;112.25150509025129963;107.62568564298813101;114.69379711343349015;122.15062232581364299;115.37604391741261622;124.63603594572148836;-130.00933291356423638;-122.48608830921996571;137.29091806648159491;-130.44300399206264274;-142.41207365387964501;-141.4696314524145464;143.63380188989859221;145.66201217101311727;156.81967194104706209;-149.71547934394780555;-149.55499180461194442;158.42447144841077034;-159.68317288031573753;-168.50512890263630084;163.60620962054585448;-172.93251107807162725;168.63165274164529706;178.66814164657620267;183.50874722221834645;-174.00428818990164359;176.77592863036898052;186.6798432073765639;184.96452598852090432;195.50897363426119568;196.42382668957310443;-189.21856335932292836;-195.1947846922182066;205.60220670062213344;-202.72153029486213427;-212.71532736723645485;-207.03472786926434424;-217.97313994318122354;211.70614583066804926;223.57753402867012937;-223.64159078409758763;-219.28321740925994732;231.30044337677415456;-235.6645246596876575;224.01731704529905187;228.07784533124640802;-240.38238028719138129;-242.27724809419251528;-244.69086928841747408;243.51410507482427192;-253.48537284361884758;-254.5787137052407445;-253.39086698267036013;-261.47847824564064467;-261.77130021526636483;-262.65725423288733964;266.62284085901518438;270.04961855154033401;-267.52422552459626104;282.32223456078537538;-272.11117365501138465;-282.87173808361961846;288.52936025071409176;282.2039508944438353;-284.63376100698667415;296.68258367443456791;-291.23234810346491486;304.68623634316986681;302.61256010073196876;302.93726286642947798;307.09707332557769632;305.33272327994149009;-314.62579476664166123;-303.02965982491099339;319.93901676995193384;-313.90354452602207402;-329.77071587860240243;318.11524537924520928;334.83909810540086482;323.56317016364232586;-340.36421978681505607;-340.32620454355190986;-337.36312687808680266;350.57023922607299937;-336.09284154840457859;342.83333249418922151;359.02487526845072807;-352.47115209199603214;-360.80370720914453386;-364.52702292511435189;-368.76435790983327934;-359.58699104349136633;368.16535547791056615;-365.88775182837804323;-371.88765966607672908;385.2822621515396122;-372.21105052132776336;-382.81877527271529971;387.23363569870036827;-387.088973597172469;388.36796860561304356;391.09320859259332792;392.45283377353109699;-400.23164017702345063;400.77548488208736899;-403.55953912012097362;403.25540030413372961;411.43723566245148504;411.47339398793673126;-416.29746855181457477;412.79504996822419116;-422.78068447497759053;-424.22035233331945392;-427.60069463170555082;-430.56138059710860944;-432.25614944171195475;-434.2991563767099592;-443.80811907129890415;423.75309786819434521;-445.38115233079599875;437.40750922806142853;453.43292429648681718;442.00343041916539732;-460.47600307029108535;-447.86274020891079317;-468.069287283346398;462.78040158593677234;466.50892653480644867;-462.72092644801972483;480.03457051164770064;464.48017987132845974;485.45144746466218066;466.98398815843404464;-490.86872251795472266;-486.60133880661720696;487.45742807499289029;481.99884296127669359;-500.92787254493242699;-495.54748187967322792;-501.09867781933724018;-503.7264260986534623;-505.87188647690351218;-508.38554544990404338;499.78681797497176831;-521.68593458729958456;523.95893698778672842;505.82281767592127153;522.63170817182856354;533.19526273701626451;510.32062608998927544;-529.38971689095262718;534.42717460807739371;-534.40574865744315503;536.51546913310164655;537.69912998123288617;-545.3003793057717985;-532.56348615373542543;-558.00155295873855721;553.11486857846114162;539.10113562543267562;-565.43576162571628174;557.69235300105196984;566.62427433444588587;-574.5969179129655231;561.32283385025516509;-570.41598947655234042;573.77913598693817221;-578.63202943924397914;-566.23437441695864436;-592.62809726315526859;-586.20368041122389968;587.50557917549542708;-590.74539795903615413;590.20617433830386744;-594.48300148801070009;-600.32105909905635599;-602.99904500333570923;602.78983025758020631;-609.24902978354430161;-593.74160728619790461;-621.77275728870995408;618.51129773684158408;-618.3768762700286743;628.40567208148729605;-610.05375511324552917;630.12610536407703421;-637.54894221541701427;630.21180350552560867;-642.92593576148146894;-620.45518783854936373;-648.13188439094676596;634.28878289939359547;659.47856072758770551;649.991222239103422;-651.42495128497057522;653.60506291178342053;655.87552321224870866;664.5934303393466962;661.24418028830257299;678.23270360182561944;-647.98237683227853267;671.1845662621409474;-676.61019860219323618;-676.16766617905852854;678.46798653800124157;-680.81140519780228715];
IW1_1 = [680.53789465291424676;682.54075793234358116;-685.59649249450444586;683.39193036737981402;686.96728679209115853;-683.58697828041533739;-685.52244175016585359;681.85503658151060336;680.86117680022152854;683.29969122259387859;-696.9189041049004345;669.20140352802866346;699.03770043255974542;-669.90350371748024827;694.01372917263961426;-661.67545466460228454;-698.67143488666931717;668.4356782102621537;685.43026944376401843;664.63311503907823408;695.8901177452680713;-684.77473774172972298;662.80472604993667574;696.32329448299105934;686.36404520257030981;681.52675514746727004;658.40789641185290293;-693.14607622693540634;698.40499563893808954;-666.27287063211883833;695.39514188354792168;-661.59758057775843554;-699.57237200250051501;-665.34535900193066027;-699.76709825642728902;666.24788069360170084;694.11620829617038453;-658.87081163861046207;696.30039192870037823;-670.74642407412693501;-690.02677051563853183;-658.67022802789017533;694.88114875481733179;696.85535334948326636;-659.01703813490087214;-686.82644568601278934;-689.34237764784518276;654.80184028796668372;685.05054496493596616;684.88531965521121947;-681.1363808430651261;684.44956766704297024;661.44310372858546998;-696.98218831567510279;-693.62709115622817535;-657.35421880473722922;662.80889113555633685;-697.86310674541493881;692.38398834145016281;-655.39079598506236835;661.60721834008995756;-698.28874437657088947;691.33796465930686281;649.66161391940704561;687.81415309633291599;693.35922627447575906;660.80165714179099723;-687.79138220919253399;-654.89166259382977842;-693.4205636117717404;697.75674877276026109;-661.48685863551315833;701.24210370273021908;-667.33968144617540474;686.33504513925186075;-682.10920951415710078;-691.05233667233289907;-653.46562270012225326;693.47315606768756879;-693.23960029620661771;-653.40269403770810186;650.85085400698335434;691.19786471276927386;682.39553441787620613;685.02265484291888242;-658.04619591828554803;695.47917462686439194;699.3801611131249274;-662.84585323164935744;691.81751938325749052;-653.48436596412568633;-704.30224476121941279;673.31033508637563045;701.99358143973631741;672.87615883443322673;-653.0661467892125529;692.80392961213192393;-654.7617171358089081;-695.48721238337884643;-679.49273511100284395;-692.53996297640412649;691.63191047798989075;-652.79164955648184332;699.77992976689426996;-669.9336149138074461;671.6399374890394256;-700.19779346347331739;668.6373603858420438;700.76082897984679221;692.01136410487424655;-654.7167209343867853;-665.18425421899553385;-703.4288829900157225;693.27272074960046666;-679.34231984779262348;700.00332502537446544;660.90319787348107639;694.84913412580795011;-659.31768452460448771;-685.27430575840435267;-686.49086957563190481;685.61607001994912025;-646.3698615114592485;687.00030776226117268;688.92636681770898122;680.35359109992975846;-683.5922112739530121;-689.71542904503348836;-646.42296106558774227;685.69810836345402549;-639.18645947944798991;692.37666672788986943;-691.62304094680962407;-638.32900535789383412;-681.60668538238985548;-698.80694197820582758;656.40522472665406895;673.46458648090060706;703.3931670187553209;-700.39143036750158444;668.86730378395645857;666.77545346411125138;-701.60502087349550493;690.02337373431407741;-677.69129354823996891;-687.66827906034893658;-646.37490335285167475;-655.82426728963889673;-696.68988567471228635;-696.78132946503080802;-661.3204849675640844;-683.20117556299589978;684.11588143946050877;678.54252836439002294;-682.17356662020563363;-684.35119399830398379;-646.96939569189862596;690.97840800254789428;-656.0001991708955984;-693.6002648104133641;684.1189929756286574;-679.10208415838451401;-687.46875109545123905;-692.23792344858486558;-644.12630844660316143;-687.3980326495789086;687.89306294254981822;669.92034734887374725;699.2292973937833267;-684.63325103059389676;-683.98413644790059607;-684.81178092246216238;666.44175961486439519;-698.51902747273902605;-644.57008137869206621;-687.90518084555890255;700.34070032590659594;663.56126845178459916;666.65348180479816165;-699.07857312506223479;674.06380115194565406;-687.43116410719824216;687.92665053465134406;-651.38202622372887163;693.31282335605828848;-701.2139199716142457;-666.11996512738187448;687.81659872814020673;684.79419916933136392;-642.55950824626677331;690.89811638950493489;682.77755951288702363;-670.69851337961085846;-697.41423111395590695;-701.08650105158983479;-671.75188074690436224;703.14443237337070514;665.3742481727787208;703.28858283773922722;665.25821561560417194;691.78008304288346153;-651.80193645516646939;684.33028306155699738;710.28666768323921588;-647.19275673889490008;698.79688469015002283;684.49215845738183361;696.18358893909112339;671.24240301054123847;680.24287744897821995;-703.20807172350646397;-655.34413205786415801;-689.56254070026500358;-690.09072517916968081;696.7484998686563813;-661.11126488366971898;-666.60336817439724655;-702.02241811449653142;-686.81431672896337659;-682.5802655211327874;-687.11018818393881702;674.07505347853725652;-682.20321227206898129;-683.64817427127786686;681.2802331846061179;680.15545173523287303;-687.35066075543647912;-656.81159554264775124;-701.82763310015263869;-705.54703346367443828;660.47773666211696764;-703.8599132181522009;669.49278762830920186;672.9687078446564783;-701.61537948155819322;-684.61404274229084876;-675.64156579265261371;-691.95742597307184951;-688.92872824875894366;642.52631496603248706;-685.22653047399319348;-683.0984203795051144;690.15425082257263512;-699.38291072439574236;663.5151558616469174;668.42882756447136217;-702.38654277979719609;665.37048246874860524;-702.10773130747406867;-685.48659047538274081;685.54294551842122019;700.49704705035310326;659.18228287193483084;-705.62156160010567874;-674.56006299287309957;661.13396585527414118;698.55179041595556555;-686.85240479035735461;-684.39003918507376056;688.09010884522467677;-646.94787766528258999;690.51124034551776276;682.53129598008945322;686.31005509502858786;-650.54946308923854303;-695.11933420606646905;-654.56862351213499096;698.42716549171370843;-689.99377176775863063;679.6905841901234453;-697.55434710518500196;661.98470530691406566;-686.89747702039164778;656.3457320701519393;699.55168829270269271;684.19736111289978453;686.91662073684801726;-683.37206851165842636;688.37446471372209089;-698.44648401251390624;-663.28053346029128079;689.12454335761708535;635.91874416026882955;-681.0095825545979551;693.39239495815172631;645.4816650815741923;687.78162456242216649;694.49933456768815176;655.89194609562696314;689.59175621434872028;-697.13065624398859654;-656.75164679831982539;707.41956805571533096;-672.19937780023064988;-687.54779895581975779;-679.48373262692825847;680.40092581333760791;687.96104201694720359;706.15605297272759344;-674.13147443705111073;-649.23434828853930867;687.75882155123383654;-670.15652682245524829;-707.14491834797695446;662.25391987666614568;-700.05549535365969405;662.15889749046061752;701.54898826078840557;696.47780970335634265;-660.32509450991858557;651.77106918582558137;688.30828881911304507;661.00849960760160684;698.72005867752807262;686.82034814040673609;-661.43959710917306438;-666.92522862888631607;702.40305988817112848;-665.9629022942648362;-698.83030300454845474;-662.23599829774195769;-697.23851791242304898;660.13728201298079057;697.14456081215951144;-685.05218012494447066;-661.27807595705019139;697.50781383691196424;-693.52435346186132392;659.24814562075664526;655.1320711428542154;-690.4851467575284687;-683.05901013394043275;-689.67751829044493661;666.82178402323108912;-694.18338598795617145;-685.51177965980934914;-681.9883879218052698;-684.93429398312844114;-679.83908372515588781;-681.67823943074063209;682.77193910224684714;688.29854778038190943;-682.29482699779941868;700.43292003759006548;-675.08880787091868569;-681.58609274163495684;690.73866389201464244;675.45705557437088373;-670.81361614622551315;699.16474991143911666;-667.55200121135578684;698.43517532359976485;685.54840461097603566;681.23027937103972818;686.19702637339764806;682.6509966945694714;-686.79431377972150585;-654.3168320449908606;690.83047868050630314;-665.71848950020387292;-699.36827273586618503;663.3692616583812196;698.24021194438148541;663.14732243446701432;-697.57926093225580644;-687.97884632637340019;-681.74654731762916526;699.71662156166985369;-670.86102640903015981;668.19005086257436687;699.78043642500847454;-678.60366001918794154;-694.54871920545747344;-681.75046922945307415;-690.82664066157315119;-673.36977604914704898;682.65644697611026004;-677.52896399849964837;-688.27175943199335961;699.22224940561841322;-675.50246651079714866;-678.25555551398599619;686.3392332907085347;-682.80595416007236054;680.91570400522675754;681.94808186730335819;683.85995547214849921;-684.20645367169368001;681.63140162954778134;-684.1111117696779047;684.06667131696337947;684.31087137248869112;681.34704082061205099;-686.70021476838849139;681.08654383227224116;-684.09401527270290444;-686.29376455191038531;-676.5990164078300495;-684.93573916178252148;-683.42627268294961596;-683.47256004630514781;-691.61799080599450917;660.36835353445974306;-688.28793033170518356;672.94780849665517053;697.63351435289916935;671.7548082565290315;-699.82003661124576865;-666.54193163510205977;-696.63138490628796262;682.52050288959844693;687.91852806491408501;-672.27695458735843204;697.44677184795330049;666.62367548317911314;696.73122968656628018;662.95773387313238345;-696.86099672938371441;-684.42176663056636698;685.48221936266804732;668.25801067280872303;-694.52502980019903589;-681.24781381644925204;-688.79308896109193938;-679.2122829779765425;-685.12288071510340615;-685.32629545576833152;668.14442244931478854;-697.40523732908104648;690.75066862362143638;666.73367747662962302;687.66936941250969539;693.98808867324919447;664.19419841006629213;-685.80505637334317726;683.26133456812976874;-680.52743292089735405;682.20254108055382858;682.46908941536605653;-682.99533621770899572;-663.20348058663853408;-694.87506743120820829;683.78631311967410511;662.3042341509420794;-694.65111961556101505;679.2028234628513701;690.02715192247421783;-689.12247788033278084;673.21213261740388134;-681.92572148263218423;685.79889108016243426;-682.42253301500170437;-664.3416383217187331;-695.30093356898908041;-683.07392952362499727;681.30930129906357706;-683.05536740815568919;684.0233833324709849;-679.32919392409201009;-683.68241107155290592;-684.72646539867071169;684.78031593783168773;-683.00444819510175876;-662.42575320111268411;-693.69250684040753185;685.01628003463406458;-684.76371376624479126;688.82127344185050788;-668.43038169483588717;690.12720652496886942;-685.04922125024131674;677.12138033059750342;-688.14482256312862773;-663.3949772794466071;-692.87133135026749642;670.63585514666783638;697.27571589939066143;683.42116630923408138;-682.15262615679648661;683.0920500499952368;685.16526631500653366;685.73104332271702788;682.1950577090843808;694.80116927672474958;-663.80596801499086723;684.34749891091848895;-683.25085474294053256;-680.87115088987388845;681.77273886405123449;-683.95292699532740244];

% Layer 2
b2 = -1.5322318047506040539;
LW2_1 = [-3.5162975289294902126 2.7684820248856802927 -3.4395453093729941862 -3.5849782945233790166 -4.5656619984786717126 -4.5959703251911898647 0.26563209567454609816 3.10683123896978719 -3.1960027500510870269 0.53394475309967459609 -19.357778042791224493 -19.543372503382368421 -20.268057534140723419 -20.366589704409374662 22.045077434377251535 22.317332381180499112 20.725576917424906043 20.959868963784622053 -0.16684101233169681966 21.38319375448635995 -21.175632431824030988 0.32058479963588237815 22.933122424876934531 -22.639000483541988018 -4.0410002801461155642 4.0452031169497715268 -23.518204335437317809 -23.20456951268021939 -21.464152800030596779 -21.807026347087333562 22.384272330686791008 22.69419625908533078 22.654253115316109302 -22.915286559395998012 -22.232256650603353876 -22.50879022522572015 -22.850742032756635069 -23.136760442911018743 16.937991553286604329 17.099335947157531024 0.28103048801594948669 -25.070766966498091222 23.432511963954450351 -24.685027031686072263 23.747615150886762336 -0.36476970085585330716 -22.432918032451667045 -22.677734015588701055 0.15700084204081146688 -0.24956023804139443323 -4.8495632595450626212 -4.8405944346974969505 22.889020517527828957 22.615553357640344245 -22.957814689533798003 23.279628581103498419 22.473482763098406423 22.10832404137600804 23.084347547870343931 23.422317866320305768 23.341945226077552178 23.061915321510280563 25.62771113352350838 -26.045314460388173217 0.57634629629671363382 20.059980785396039238 -20.317355927655917469 0.28550681712981679228 -23.977148789358096792 23.628403307564436631 22.685042580081791641 22.962259299850266814 -20.530186309864678407 -20.804962577600878859 3.0104280807290297872 3.0704565640193983711 0.31718066551195617242 -24.429574764226721584 -24.065250032528933133 -23.99060697115933749 24.366350577236371322 24.297957295942588019 -23.908697094481226486 1.2007435057707465109 -1.1626351959342002829 22.66542937385269596 22.303171113643404766 -21.583143134884537062 -21.844409348268694515 22.46194469566130536 22.766186630292224891 18.648217457805429831 18.828431928988635491 -17.261553425395440797 17.422724940551546524 23.332417999958565247 22.916102774757000304 -23.700022010991368404 23.341733942294716542 -7.8076760759941388201 7.8206878698800030847 22.13978530860772409 22.520788527779028954 -17.376116307993971333 -17.486513729279387519 16.81840553411895911 16.761683039000331519 18.939369620485205559 -18.714201726671038983 21.18518548531452339 21.471651499417191644 22.30721411583121494 -22.088514922761646631 8.8212986791638456907 8.9432782847012752825 -22.203711123262959148 22.506792937511384878 -19.727956474922191177 -19.922078285397851971 1.249130103860426777 -1.2513397309263920576 22.137095283734105067 22.394886666626295124 0.21458461749443319411 -0.47338011917710931531 1.6915511290830225199 1.5189021166792311401 23.779197067971605151 -24.162003339269034541 25.079866156349943651 25.64394023652529242 0.34880571927883330385 0.26483165697032517993 -23.489191761953456705 23.096426929861394228 -23.200340259907505924 -23.529371535083033251 -17.040113408858967858 16.983748744773244255 17.257805586306972145 17.504637683030395578 19.311430703246244889 19.087534316162759751 -6.9184561618767093094 -6.8938651233873748936 -21.782683077547829953 22.107547146475351241 -22.417174623728051586 22.088561631921052708 -19.508939881565968477 19.66712979911301673 -0.18266607647167629191 -2.9929746415566755857 2.9471673119335033419 -0.049455487166179833147 0.48315772635998999185 -23.526913217209752816 -23.138838108379967906 20.176570156523709443 -19.920181985851435513 2.7895873212545096997 3.0262598506369506879 -0.37278654066247685073 0.27916429122144753583 -22.743290065934484545 22.327214052779751796 -0.52222650253506608387 16.030081617986123632 -15.730795760801843386 -0.099285419429087723442 7.1333245374039595532 -8.8591707306603932892 -18.984042578672703172 -17.277036249952896441 22.253927537876204923 -21.988114421219975725 -18.92477164182839644 19.292087374513158693 -16.948633681108944415 -16.754332233407588149 2.1883576997426721356 0.44906259335457238135 -1.9988799765499136729 -21.92260118667240576 -21.588840193959633496 -18.863236485286385857 19.486608546663322983 0.70454026887545306845 21.223000527027984674 21.532218963967697078 0.30704223449415241065 -0.44814559072991028144 -14.347629200436209373 13.972051565439214116 15.383032644188448401 -15.378616134432128604 19.347535914652020494 -19.678538986630549346 -19.467909418142017586 19.76416083577825944 20.67470646574212978 20.974835261994794422 0.31291708781799920658 12.262281267659856709 37.727149996057150361 25.352588002471765805 0.06511399266602005409 13.806899218071635005 -15.107820628714957678 1.3270104673189597744 -16.649850952711638286 33.00599440869180512 -24.173810281354008112 7.8986035420920162053 -18.107580167916747627 -18.364815063264920525 18.157002486366838667 -17.914038814955716816 3.8381364429105606639 -6.4821276626843271629 12.253552256917629393 9.719892947376285619 -0.010464838471490054209 0.27154166755459502314 1.5037932451219131469 -1.5684721522441897879 -0.38797812795870911806 22.806853428675552209 -22.44638429516145095 22.482833585974756119 22.912092471099349211 -17.533389759280005649 -17.701818188685862765 -15.026475131946050112 -14.871161560358604703 -0.78090568301305951504 0.9588782851920664152 -0.44826371571652351422 0.29519598892750181784 21.275945040830585242 20.895838343426508033 4.2537627078872271014 4.3889440143563174246 -18.153511959015101951 -18.361837930558213117 -17.364293477121975684 -17.233638723659602476 18.79907538142911605 18.404748911977591774 1.3938098125207192268 1.3279431925789100255 20.233593847663367882 -20.532735741792610185 15.830179032951884111 -15.917567065323284581 19.08447110763315635 -18.797642562038280545 0.98548989185224367127 -0.89992910684192140014 20.337563561949647095 20.665281211910137671 0.31041546419341026208 3.0593391460253207548 -3.1039043517530000571 22.353363371988351105 -21.990587248803130649 -22.296055765440996765 -21.985117476559402405 0.81586045125288964019 0.90092114949637758237 -17.921466803361237652 -18.093616720386563657 -5.8397199448215149076 -21.824916081275421931 21.438553782159889494 5.0138762521546107465 -5.8142547628243601565 5.0137420215785333255 0.54816626205301666186 -17.733203883114285304 17.911824991707369747 -0.23173530835632258351 22.431697568840274215 21.991600922795900175 -0.46261473983443268665 21.716721475205254421 -21.284614795173457225 19.711909779561100464 -19.98906821315467397 0.41848953202527727768 -20.290143229378916345 20.688931759493378593 -18.311402491660295766 -18.500220457325575296 0.88236510434842774231 -1.3201074902502052399 -1.7167291460873157494 1.2643977860864403784 -16.67721404875270963 -16.867717474455616866 19.665709517026819242 19.382504302001457575 -19.5361544781013734 19.28640438063541751 -19.673469906524200468 -19.418938082615984086 20.65853024738327548 -20.394619590484690974 18.728115758477763109 19.115068989561539325 18.89578448592218507 -18.694680866816899112 -19.726091975807293011 19.543935359039117827 13.316571799812960464 13.337865271640197307 -18.882000483359522747 -18.556263785844031133 -17.479015244293492515 17.339916874060616436 18.584417039014791584 -18.382868317235931954 19.563322348611379198 -19.272100879441371291 0.28477514431448464061 -19.313711261509077133 -19.052106816636488418 -18.137508382856530886 -18.355844687470597165 18.663156052024618248 18.409962089031282062 4.9677590294258537895 -4.8976615454682406181 14.561163337262458484 14.443171525761743013 2.9508398218991485074 -2.8525639435063849803 0.2273317083628193791 -3.2417830259950450866 3.2205735633357384096 0.8972230388456732264 4.0431267960941434936 4.8315271949856741784 -13.937383396130350377 -13.979715397736754312 0.1108507681143471868 8.7185575740499849928 -8.79374178792569694 -15.721073925266287219 -15.594897253015899352 -17.070376310946290488 -16.894020754492245828 -0.35112478857042811464 0.60433341503895154911 3.3457048247841116861 -3.7025977439241835043 0.25022522792526830093 -20.051143722421130633 -19.823080944652240021 18.991428443590447017 -18.821740498170107969 19.506212262198413754 -19.308200799467812203 -19.471792232677511691 -19.272056140717271688 -4.9165654154887343807 4.9187992184532669526 -16.27294446739511713 -16.457606140544115192 18.052977502781050845 -17.869439968795180818 9.9915521672866827174 -9.8479415300722266124 -2.5292769258374701025 -9.7422635598102669263 12.332012594835672914 2.8611808981464665891 9.0799062786168871497 -6.2834463101477400215 -13.746442996833735606 -13.763338790000245737 -4.3580895718355572299 -4.0114671204803764581 0.52785536697068580203 0.42807957798263146509 -1.9851789827414236811 1.7574693121729390022 0.16009289815100280485 0.93426926212453620391 -2.4004178333652728128 -3.1633210556503046362 -0.16080383196969827431 0.59737825832703961293 -3.9246922900069756146 -4.3547538624961461551 3.3099097214146544488 -3.3029024928284886897 -2.1328905345156750073 0.22237061266535501636 2.2380151822148519614 -0.40940772788091145395 -19.742453740377673199 -19.946097178655719517 -0.21297544980059082698 14.833800238451132714 -14.840560331675607841 -17.009259212474091782 -16.859840446322397867 -18.262835451136144371 18.057930093481189715 -4.914357300133433526 4.7790734106334875619 -15.463311222564392722 -15.430386073387106549 -18.651435527123929603 18.450964827544030555 20.851997006382127609 20.564769859181751599 3.4225421561699036488 3.3436525940138475121 16.255653344469735089 16.140675368260883005 5.8655587221447893498 -5.7425573201981574556 -4.4863876163670735053 0.19964281523713470201 4.4762178697847181397 18.446365125326092738 18.250409627921385436 15.384353070275253117 -16.95808076382333951 1.580817615472027704 19.608941410548734297 -19.891527552551650615 -0.25118154763977035282 -0.18120129753324329402 -1.0354510051516556679 -1.4722244214685558106 0.65267352905574727018 0.192502133930147451 -20.455553222485363563 20.211042017286789729 -0.25777999420438690859 21.01919907231949125 20.738075470131377642 -7.6437137863250219638 7.5904057437824485888 -11.899407010364315695 -11.713665323252721251 3.5282899539237035924 3.3088910461958547238 0.15390531022048381526 -20.488743471950240149 20.226062346077032572 0.22732838542013192318 1.9557723727278382153 -0.45028064006768520056 -2.2368900551892418882 0.23603572541384312822 -0.61906713219764186729 -2.4160784266460435532 -2.8282534879890057766 0.20794294853572078963 -21.33084169507243999 21.092175971749409058 -3.5270044831783269323 -3.4634305772473514828 9.8367437804910036192 19.334797090756236315 9.4725731309760750065 5.688823555891615591 5.7539408823390285619 -3.1404393135281556404 22.776087800692884855 -19.53653768942450597 18.581200334026103604 -18.379439571225578476 -0.30683381879921789448 -0.69330693609497717755 -2.7379942564430352903 2.2019952000946929616 -3.4224971775649666306 3.4919819761649999457 22.181566699015487387 22.450800104441768212 0.22939679597233483821 0.24377240608404085465 -0.75827598161127984788 -3.8763367675196636064 -3.4402657349897416417];

% Output 1
y1_step1.ymin = -1;
y1_step1.gain = 0.00610439566543956;
y1_step1.xoffset = 172.33064;

% ===== SIMULATION ========

% Format Input Arguments
isCellX = iscell(X);
if ~isCellX
    X = {X};
end

% Dimensions
TS = size(X,2); % timesteps
if ~isempty(X)
    Q = size(X{1},2); % samples/series
else
    Q = 0;
end

% Allocate Outputs
Y = cell(1,TS);

% Time loop
for ts=1:TS
    
    % Input 1
    Xp1 = mapminmax_apply(X{1,ts},x1_step1);
    
    % Layer 1
    a1 = tansig_apply(repmat(b1,1,Q) + IW1_1*Xp1);
    
    % Layer 2
    a2 = repmat(b2,1,Q) + LW2_1*a1;
    
    % Output 1
    Y{1,ts} = mapminmax_reverse(a2,y1_step1);
end

% Final Delay States
Xf = cell(1,0);
Af = cell(2,0);

% Format Output Arguments
if ~isCellX
    Y = cell2mat(Y);
end
end

% ===== MODULE FUNCTIONS ========

% Map Minimum and Maximum Input Processing Function
function y = mapminmax_apply(x,settings)
y = bsxfun(@minus,x,settings.xoffset);
y = bsxfun(@times,y,settings.gain);
y = bsxfun(@plus,y,settings.ymin);
end

% Sigmoid Symmetric Transfer Function
function a = tansig_apply(n,~)
a = 2 ./ (1 + exp(-2*n)) - 1;
end

% Map Minimum and Maximum Output Reverse-Processing Function
function x = mapminmax_reverse(y,settings)
x = bsxfun(@minus,y,settings.ymin);
x = bsxfun(@rdivide,x,settings.gain);
x = bsxfun(@plus,x,settings.xoffset);
end
